digraph Tree {
node [shape=box] ;
0 [label="Sex=female <= 0.5\ngini = 0.482\nsamples = 668\nvalue = [397, 271]"] ;
1 [label="Age <= 6.5\ngini = 0.327\nsamples = 423\nvalue = [336, 87]"] ;
0 -> 1 [labeldistance=2.5, labelangle=45, headlabel="True"] ;
2 [label="Pclass <= 2.5\ngini = 0.305\nsamples = 16\nvalue = [3, 13]"] ;
1 -> 2 ;
3 [label="gini = 0.0\nsamples = 7\nvalue = [0, 7]"] ;
2 -> 3 ;
4 [label="Age <= 1.5\ngini = 0.444\nsamples = 9\nvalue = [3, 6]"] ;
2 -> 4 ;
5 [label="gini = 0.0\nsamples = 2\nvalue = [0, 2]"] ;
4 -> 5 ;
6 [label="Age <= 2.5\ngini = 0.49\nsamples = 7\nvalue = [3, 4]"] ;
4 -> 6 ;
7 [label="gini = 0.0\nsamples = 2\nvalue = [2, 0]"] ;
6 -> 7 ;
8 [label="Age <= 3.5\ngini = 0.32\nsamples = 5\nvalue = [1, 4]"] ;
6 -> 8 ;
9 [label="gini = 0.0\nsamples = 2\nvalue = [0, 2]"] ;
8 -> 9 ;
10 [label="Age <= 5.0\ngini = 0.444\nsamples = 3\nvalue = [1, 2]"] ;
8 -> 10 ;
11 [label="gini = 0.5\nsamples = 2\nvalue = [1, 1]"] ;
10 -> 11 ;
12 [label="gini = 0.0\nsamples = 1\nvalue = [0, 1]"] ;
10 -> 12 ;
13 [label="Pclass <= 1.5\ngini = 0.298\nsamples = 407\nvalue = [333, 74]"] ;
1 -> 13 ;
14 [label="Age <= 38.5\ngini = 0.485\nsamples = 92\nvalue = [54, 38]"] ;
13 -> 14 ;
15 [label="Age <= 33.5\ngini = 0.498\nsamples = 49\nvalue = [23, 26]"] ;
14 -> 15 ;
16 [label="Age <= 17.5\ngini = 0.494\nsamples = 36\nvalue = [20, 16]"] ;
15 -> 16 ;
17 [label="gini = 0.0\nsamples = 2\nvalue = [0, 2]"] ;
16 -> 17 ;
18 [label="Age <= 24.5\ngini = 0.484\nsamples = 34\nvalue = [20, 14]"] ;
16 -> 18 ;
19 [label="gini = 0.0\nsamples = 4\nvalue = [4, 0]"] ;
18 -> 19 ;
20 [label="Age <= 27.5\ngini = 0.498\nsamples = 30\nvalue = [16, 14]"] ;
18 -> 20 ;
21 [label="Age <= 26.0\ngini = 0.278\nsamples = 6\nvalue = [1, 5]"] ;
20 -> 21 ;
22 [label="gini = 0.0\nsamples = 2\nvalue = [0, 2]"] ;
21 -> 22 ;
23 [label="gini = 0.375\nsamples = 4\nvalue = [1, 3]"] ;
21 -> 23 ;
24 [label="Age <= 32.5\ngini = 0.469\nsamples = 24\nvalue = [15, 9]"] ;
20 -> 24 ;
25 [label="Age <= 31.5\ngini = 0.476\nsamples = 23\nvalue = [14, 9]"] ;
24 -> 25 ;
26 [label="Age <= 28.5\ngini = 0.463\nsamples = 22\nvalue = [14, 8]"] ;
25 -> 26 ;
27 [label="gini = 0.5\nsamples = 4\nvalue = [2, 2]"] ;
26 -> 27 ;
28 [label="Age <= 29.35\ngini = 0.444\nsamples = 18\nvalue = [12, 6]"] ;
26 -> 28 ;
29 [label="gini = 0.0\nsamples = 2\nvalue = [2, 0]"] ;
28 -> 29 ;
30 [label="Age <= 29.85\ngini = 0.469\nsamples = 16\nvalue = [10, 6]"] ;
28 -> 30 ;
31 [label="gini = 0.486\nsamples = 12\nvalue = [7, 5]"] ;
30 -> 31 ;
32 [label="Age <= 30.5\ngini = 0.375\nsamples = 4\nvalue = [3, 1]"] ;
30 -> 32 ;
33 [label="gini = 0.0\nsamples = 1\nvalue = [1, 0]"] ;
32 -> 33 ;
34 [label="gini = 0.444\nsamples = 3\nvalue = [2, 1]"] ;
32 -> 34 ;
35 [label="gini = 0.0\nsamples = 1\nvalue = [0, 1]"] ;
25 -> 35 ;
36 [label="gini = 0.0\nsamples = 1\nvalue = [1, 0]"] ;
24 -> 36 ;
37 [label="Age <= 35.5\ngini = 0.355\nsamples = 13\nvalue = [3, 10]"] ;
15 -> 37 ;
38 [label="gini = 0.0\nsamples = 4\nvalue = [0, 4]"] ;
37 -> 38 ;
39 [label="Age <= 37.5\ngini = 0.444\nsamples = 9\nvalue = [3, 6]"] ;
37 -> 39 ;
40 [label="Age <= 36.5\ngini = 0.469\nsamples = 8\nvalue = [3, 5]"] ;
39 -> 40 ;
41 [label="gini = 0.444\nsamples = 6\nvalue = [2, 4]"] ;
40 -> 41 ;
42 [label="gini = 0.5\nsamples = 2\nvalue = [1, 1]"] ;
40 -> 42 ;
43 [label="gini = 0.0\nsamples = 1\nvalue = [0, 1]"] ;
39 -> 43 ;
44 [label="Age <= 75.5\ngini = 0.402\nsamples = 43\nvalue = [31, 12]"] ;
14 -> 44 ;
45 [label="Age <= 60.5\ngini = 0.387\nsamples = 42\nvalue = [31, 11]"] ;
44 -> 45 ;
46 [label="Age <= 47.5\ngini = 0.438\nsamples = 34\nvalue = [23, 11]"] ;
45 -> 46 ;
47 [label="Age <= 45.25\ngini = 0.305\nsamples = 16\nvalue = [13, 3]"] ;
46 -> 47 ;
48 [label="Age <= 39.5\ngini = 0.397\nsamples = 11\nvalue = [8, 3]"] ;
47 -> 48 ;
49 [label="gini = 0.0\nsamples = 1\nvalue = [1, 0]"] ;
48 -> 49 ;
50 [label="Age <= 43.0\ngini = 0.42\nsamples = 10\nvalue = [7, 3]"] ;
48 -> 50 ;
51 [label="Age <= 41.0\ngini = 0.48\nsamples = 5\nvalue = [3, 2]"] ;
50 -> 51 ;
52 [label="gini = 0.444\nsamples = 3\nvalue = [2, 1]"] ;
51 -> 52 ;
53 [label="gini = 0.5\nsamples = 2\nvalue = [1, 1]"] ;
51 -> 53 ;
54 [label="Age <= 44.5\ngini = 0.32\nsamples = 5\nvalue = [4, 1]"] ;
50 -> 54 ;
55 [label="gini = 0.0\nsamples = 1\nvalue = [1, 0]"] ;
54 -> 55 ;
56 [label="gini = 0.375\nsamples = 4\nvalue = [3, 1]"] ;
54 -> 56 ;
57 [label="gini = 0.0\nsamples = 5\nvalue = [5, 0]"] ;
47 -> 57 ;
58 [label="Age <= 48.5\ngini = 0.494\nsamples = 18\nvalue = [10, 8]"] ;
46 -> 58 ;
59 [label="gini = 0.0\nsamples = 3\nvalue = [0, 3]"] ;
58 -> 59 ;
60 [label="Age <= 49.5\ngini = 0.444\nsamples = 15\nvalue = [10, 5]"] ;
58 -> 60 ;
61 [label="gini = 0.0\nsamples = 1\nvalue = [1, 0]"] ;
60 -> 61 ;
62 [label="Age <= 53.0\ngini = 0.459\nsamples = 14\nvalue = [9, 5]"] ;
60 -> 62 ;
63 [label="Age <= 50.5\ngini = 0.5\nsamples = 6\nvalue = [3, 3]"] ;
62 -> 63 ;
64 [label="gini = 0.5\nsamples = 2\nvalue = [1, 1]"] ;
63 -> 64 ;
65 [label="Age <= 51.5\ngini = 0.5\nsamples = 4\nvalue = [2, 2]"] ;
63 -> 65 ;
66 [label="gini = 0.5\nsamples = 2\nvalue = [1, 1]"] ;
65 -> 66 ;
67 [label="gini = 0.5\nsamples = 2\nvalue = [1, 1]"] ;
65 -> 67 ;
68 [label="Age <= 55.5\ngini = 0.375\nsamples = 8\nvalue = [6, 2]"] ;
62 -> 68 ;
69 [label="gini = 0.0\nsamples = 3\nvalue = [3, 0]"] ;
68 -> 69 ;
70 [label="Age <= 57.0\ngini = 0.48\nsamples = 5\nvalue = [3, 2]"] ;
68 -> 70 ;
71 [label="gini = 0.5\nsamples = 2\nvalue = [1, 1]"] ;
70 -> 71 ;
72 [label="Age <= 59.0\ngini = 0.444\nsamples = 3\nvalue = [2, 1]"] ;
70 -> 72 ;
73 [label="gini = 0.0\nsamples = 1\nvalue = [1, 0]"] ;
72 -> 73 ;
74 [label="gini = 0.5\nsamples = 2\nvalue = [1, 1]"] ;
72 -> 74 ;
75 [label="gini = 0.0\nsamples = 8\nvalue = [8, 0]"] ;
45 -> 75 ;
76 [label="gini = 0.0\nsamples = 1\nvalue = [0, 1]"] ;
44 -> 76 ;
77 [label="Age <= 32.25\ngini = 0.202\nsamples = 315\nvalue = [279, 36]"] ;
13 -> 77 ;
78 [label="Age <= 31.5\ngini = 0.228\nsamples = 236\nvalue = [205, 31]"] ;
77 -> 78 ;
79 [label="Pclass <= 2.5\ngini = 0.216\nsamples = 227\nvalue = [199, 28]"] ;
78 -> 79 ;
80 [label="Age <= 29.35\ngini = 0.097\nsamples = 39\nvalue = [37, 2]"] ;
79 -> 80 ;
81 [label="gini = 0.0\nsamples = 26\nvalue = [26, 0]"] ;
80 -> 81 ;
82 [label="Age <= 29.85\ngini = 0.26\nsamples = 13\nvalue = [11, 2]"] ;
80 -> 82 ;
83 [label="gini = 0.408\nsamples = 7\nvalue = [5, 2]"] ;
82 -> 83 ;
84 [label="gini = 0.0\nsamples = 6\nvalue = [6, 0]"] ;
82 -> 84 ;
85 [label="Age <= 30.5\ngini = 0.238\nsamples = 188\nvalue = [162, 26]"] ;
79 -> 85 ;
86 [label="Age <= 29.35\ngini = 0.233\nsamples = 186\nvalue = [161, 25]"] ;
85 -> 86 ;
87 [label="Age <= 28.75\ngini = 0.262\nsamples = 116\nvalue = [98, 18]"] ;
86 -> 87 ;
88 [label="Age <= 27.5\ngini = 0.237\nsamples = 109\nvalue = [94, 15]"] ;
87 -> 88 ;
89 [label="Age <= 26.5\ngini = 0.257\nsamples = 99\nvalue = [84, 15]"] ;
88 -> 89 ;
90 [label="Age <= 13.5\ngini = 0.221\nsamples = 95\nvalue = [83, 12]"] ;
89 -> 90 ;
91 [label="Age <= 11.5\ngini = 0.346\nsamples = 9\nvalue = [7, 2]"] ;
90 -> 91 ;
92 [label="Age <= 9.5\ngini = 0.219\nsamples = 8\nvalue = [7, 1]"] ;
91 -> 92 ;
93 [label="Age <= 8.0\ngini = 0.32\nsamples = 5\nvalue = [4, 1]"] ;
92 -> 93 ;
94 [label="gini = 0.0\nsamples = 2\nvalue = [2, 0]"] ;
93 -> 94 ;
95 [label="gini = 0.444\nsamples = 3\nvalue = [2, 1]"] ;
93 -> 95 ;
96 [label="gini = 0.0\nsamples = 3\nvalue = [3, 0]"] ;
92 -> 96 ;
97 [label="gini = 0.0\nsamples = 1\nvalue = [0, 1]"] ;
91 -> 97 ;
98 [label="Age <= 24.5\ngini = 0.206\nsamples = 86\nvalue = [76, 10]"] ;
90 -> 98 ;
99 [label="Age <= 22.5\ngini = 0.185\nsamples = 68\nvalue = [61, 7]"] ;
98 -> 99 ;
100 [label="Age <= 17.5\ngini = 0.212\nsamples = 58\nvalue = [51, 7]"] ;
99 -> 100 ;
101 [label="Age <= 16.5\ngini = 0.153\nsamples = 12\nvalue = [11, 1]"] ;
100 -> 101 ;
102 [label="Age <= 15.5\ngini = 0.245\nsamples = 7\nvalue = [6, 1]"] ;
101 -> 102 ;
103 [label="gini = 0.0\nsamples = 1\nvalue = [1, 0]"] ;
102 -> 103 ;
104 [label="gini = 0.278\nsamples = 6\nvalue = [5, 1]"] ;
102 -> 104 ;
105 [label="gini = 0.0\nsamples = 5\nvalue = [5, 0]"] ;
101 -> 105 ;
106 [label="Age <= 20.5\ngini = 0.227\nsamples = 46\nvalue = [40, 6]"] ;
100 -> 106 ;
107 [label="Age <= 19.5\ngini = 0.252\nsamples = 27\nvalue = [23, 4]"] ;
106 -> 107 ;
108 [label="Age <= 18.5\ngini = 0.219\nsamples = 16\nvalue = [14, 2]"] ;
107 -> 108 ;
109 [label="gini = 0.245\nsamples = 7\nvalue = [6, 1]"] ;
108 -> 109 ;
110 [label="gini = 0.198\nsamples = 9\nvalue = [8, 1]"] ;
108 -> 110 ;
111 [label="gini = 0.298\nsamples = 11\nvalue = [9, 2]"] ;
107 -> 111 ;
112 [label="Age <= 21.5\ngini = 0.188\nsamples = 19\nvalue = [17, 2]"] ;
106 -> 112 ;
113 [label="gini = 0.165\nsamples = 11\nvalue = [10, 1]"] ;
112 -> 113 ;
114 [label="gini = 0.219\nsamples = 8\nvalue = [7, 1]"] ;
112 -> 114 ;
115 [label="gini = 0.0\nsamples = 10\nvalue = [10, 0]"] ;
99 -> 115 ;
116 [label="Age <= 25.5\ngini = 0.278\nsamples = 18\nvalue = [15, 3]"] ;
98 -> 116 ;
117 [label="gini = 0.32\nsamples = 10\nvalue = [8, 2]"] ;
116 -> 117 ;
118 [label="gini = 0.219\nsamples = 8\nvalue = [7, 1]"] ;
116 -> 118 ;
119 [label="gini = 0.375\nsamples = 4\nvalue = [1, 3]"] ;
89 -> 119 ;
120 [label="gini = 0.0\nsamples = 10\nvalue = [10, 0]"] ;
88 -> 120 ;
121 [label="gini = 0.49\nsamples = 7\nvalue = [4, 3]"] ;
87 -> 121 ;
122 [label="Age <= 29.85\ngini = 0.18\nsamples = 70\nvalue = [63, 7]"] ;
86 -> 122 ;
123 [label="gini = 0.192\nsamples = 65\nvalue = [58, 7]"] ;
122 -> 123 ;
124 [label="gini = 0.0\nsamples = 5\nvalue = [5, 0]"] ;
122 -> 124 ;
125 [label="gini = 0.5\nsamples = 2\nvalue = [1, 1]"] ;
85 -> 125 ;
126 [label="Pclass <= 2.5\ngini = 0.444\nsamples = 9\nvalue = [6, 3]"] ;
78 -> 126 ;
127 [label="gini = 0.5\nsamples = 2\nvalue = [1, 1]"] ;
126 -> 127 ;
128 [label="gini = 0.408\nsamples = 7\nvalue = [5, 2]"] ;
126 -> 128 ;
129 [label="Age <= 38.5\ngini = 0.119\nsamples = 79\nvalue = [74, 5]"] ;
77 -> 129 ;
130 [label="gini = 0.0\nsamples = 29\nvalue = [29, 0]"] ;
129 -> 130 ;
131 [label="Age <= 45.5\ngini = 0.18\nsamples = 50\nvalue = [45, 5]"] ;
129 -> 131 ;
132 [label="Age <= 44.5\ngini = 0.252\nsamples = 27\nvalue = [23, 4]"] ;
131 -> 132 ;
133 [label="Age <= 43.5\ngini = 0.211\nsamples = 25\nvalue = [22, 3]"] ;
132 -> 133 ;
134 [label="Age <= 39.5\ngini = 0.172\nsamples = 21\nvalue = [19, 2]"] ;
133 -> 134 ;
135 [label="Pclass <= 2.5\ngini = 0.32\nsamples = 5\nvalue = [4, 1]"] ;
134 -> 135 ;
136 [label="gini = 0.0\nsamples = 2\nvalue = [2, 0]"] ;
135 -> 136 ;
137 [label="gini = 0.444\nsamples = 3\nvalue = [2, 1]"] ;
135 -> 137 ;
138 [label="Pclass <= 2.5\ngini = 0.117\nsamples = 16\nvalue = [15, 1]"] ;
134 -> 138 ;
139 [label="Age <= 42.5\ngini = 0.444\nsamples = 3\nvalue = [2, 1]"] ;
138 -> 139 ;
140 [label="gini = 0.5\nsamples = 2\nvalue = [1, 1]"] ;
139 -> 140 ;
141 [label="gini = 0.0\nsamples = 1\nvalue = [1, 0]"] ;
139 -> 141 ;
142 [label="gini = 0.0\nsamples = 13\nvalue = [13, 0]"] ;
138 -> 142 ;
143 [label="Pclass <= 2.5\ngini = 0.375\nsamples = 4\nvalue = [3, 1]"] ;
133 -> 143 ;
144 [label="gini = 0.0\nsamples = 1\nvalue = [1, 0]"] ;
143 -> 144 ;
145 [label="gini = 0.444\nsamples = 3\nvalue = [2, 1]"] ;
143 -> 145 ;
146 [label="gini = 0.5\nsamples = 2\nvalue = [1, 1]"] ;
132 -> 146 ;
147 [label="Age <= 60.5\ngini = 0.083\nsamples = 23\nvalue = [22, 1]"] ;
131 -> 147 ;
148 [label="gini = 0.0\nsamples = 19\nvalue = [19, 0]"] ;
147 -> 148 ;
149 [label="Age <= 64.0\ngini = 0.375\nsamples = 4\nvalue = [3, 1]"] ;
147 -> 149 ;
150 [label="gini = 0.0\nsamples = 1\nvalue = [0, 1]"] ;
149 -> 150 ;
151 [label="gini = 0.0\nsamples = 3\nvalue = [3, 0]"] ;
149 -> 151 ;
152 [label="Pclass <= 2.5\ngini = 0.374\nsamples = 245\nvalue = [61, 184]"] ;
0 -> 152 [labeldistance=2.5, labelangle=-45, headlabel="False"] ;
153 [label="Age <= 56.5\ngini = 0.101\nsamples = 131\nvalue = [7, 124]"] ;
152 -> 153 ;
154 [label="Age <= 27.5\ngini = 0.091\nsamples = 126\nvalue = [6, 120]"] ;
153 -> 154 ;
155 [label="Age <= 24.5\ngini = 0.162\nsamples = 45\nvalue = [4, 41]"] ;
154 -> 155 ;
156 [label="Age <= 23.5\ngini = 0.049\nsamples = 40\nvalue = [1, 39]"] ;
155 -> 156 ;
157 [label="gini = 0.0\nsamples = 30\nvalue = [0, 30]"] ;
156 -> 157 ;
158 [label="Pclass <= 1.5\ngini = 0.18\nsamples = 10\nvalue = [1, 9]"] ;
156 -> 158 ;
159 [label="gini = 0.0\nsamples = 4\nvalue = [0, 4]"] ;
158 -> 159 ;
160 [label="gini = 0.278\nsamples = 6\nvalue = [1, 5]"] ;
158 -> 160 ;
161 [label="Age <= 26.5\ngini = 0.48\nsamples = 5\nvalue = [3, 2]"] ;
155 -> 161 ;
162 [label="Age <= 25.5\ngini = 0.5\nsamples = 4\nvalue = [2, 2]"] ;
161 -> 162 ;
163 [label="Pclass <= 1.5\ngini = 0.5\nsamples = 2\nvalue = [1, 1]"] ;
162 -> 163 ;
164 [label="gini = 0.0\nsamples = 1\nvalue = [1, 0]"] ;
163 -> 164 ;
165 [label="gini = 0.0\nsamples = 1\nvalue = [0, 1]"] ;
163 -> 165 ;
166 [label="Pclass <= 1.5\ngini = 0.5\nsamples = 2\nvalue = [1, 1]"] ;
162 -> 166 ;
167 [label="gini = 0.0\nsamples = 1\nvalue = [0, 1]"] ;
166 -> 167 ;
168 [label="gini = 0.0\nsamples = 1\nvalue = [1, 0]"] ;
166 -> 168 ;
169 [label="gini = 0.0\nsamples = 1\nvalue = [1, 0]"] ;
161 -> 169 ;
170 [label="Age <= 43.5\ngini = 0.048\nsamples = 81\nvalue = [2, 79]"] ;
154 -> 170 ;
171 [label="gini = 0.0\nsamples = 57\nvalue = [0, 57]"] ;
170 -> 171 ;
172 [label="Age <= 44.5\ngini = 0.153\nsamples = 24\nvalue = [2, 22]"] ;
170 -> 172 ;
173 [label="Pclass <= 1.5\ngini = 0.444\nsamples = 3\nvalue = [1, 2]"] ;
172 -> 173 ;
174 [label="gini = 0.0\nsamples = 2\nvalue = [0, 2]"] ;
173 -> 174 ;
175 [label="gini = 0.0\nsamples = 1\nvalue = [1, 0]"] ;
173 -> 175 ;
176 [label="Pclass <= 1.5\ngini = 0.091\nsamples = 21\nvalue = [1, 20]"] ;
172 -> 176 ;
177 [label="Age <= 50.5\ngini = 0.142\nsamples = 13\nvalue = [1, 12]"] ;
176 -> 177 ;
178 [label="Age <= 49.5\ngini = 0.245\nsamples = 7\nvalue = [1, 6]"] ;
177 -> 178 ;
179 [label="gini = 0.0\nsamples = 5\nvalue = [0, 5]"] ;
178 -> 179 ;
180 [label="gini = 0.5\nsamples = 2\nvalue = [1, 1]"] ;
178 -> 180 ;
181 [label="gini = 0.0\nsamples = 6\nvalue = [0, 6]"] ;
177 -> 181 ;
182 [label="gini = 0.0\nsamples = 8\nvalue = [0, 8]"] ;
176 -> 182 ;
183 [label="Pclass <= 1.5\ngini = 0.32\nsamples = 5\nvalue = [1, 4]"] ;
153 -> 183 ;
184 [label="gini = 0.0\nsamples = 4\nvalue = [0, 4]"] ;
183 -> 184 ;
185 [label="gini = 0.0\nsamples = 1\nvalue = [1, 0]"] ;
183 -> 185 ;
186 [label="Age <= 38.5\ngini = 0.499\nsamples = 114\nvalue = [54, 60]"] ;
152 -> 186 ;
187 [label="Age <= 6.5\ngini = 0.491\nsamples = 104\nvalue = [45, 59]"] ;
186 -> 187 ;
188 [label="Age <= 3.5\ngini = 0.278\nsamples = 12\nvalue = [2, 10]"] ;
187 -> 188 ;
189 [label="Age <= 1.5\ngini = 0.444\nsamples = 6\nvalue = [2, 4]"] ;
188 -> 189 ;
190 [label="gini = 0.0\nsamples = 3\nvalue = [0, 3]"] ;
189 -> 190 ;
191 [label="Age <= 2.5\ngini = 0.444\nsamples = 3\nvalue = [2, 1]"] ;
189 -> 191 ;
192 [label="gini = 0.5\nsamples = 2\nvalue = [1, 1]"] ;
191 -> 192 ;
193 [label="gini = 0.0\nsamples = 1\nvalue = [1, 0]"] ;
191 -> 193 ;
194 [label="gini = 0.0\nsamples = 6\nvalue = [0, 6]"] ;
188 -> 194 ;
195 [label="Age <= 12.0\ngini = 0.498\nsamples = 92\nvalue = [43, 49]"] ;
187 -> 195 ;
196 [label="gini = 0.0\nsamples = 6\nvalue = [6, 0]"] ;
195 -> 196 ;
197 [label="Age <= 32.5\ngini = 0.49\nsamples = 86\nvalue = [37, 49]"] ;
195 -> 197 ;
198 [label="Age <= 29.85\ngini = 0.494\nsamples = 81\nvalue = [36, 45]"] ;
197 -> 198 ;
199 [label="Age <= 21.5\ngini = 0.487\nsamples = 74\nvalue = [31, 43]"] ;
198 -> 199 ;
200 [label="Age <= 15.5\ngini = 0.5\nsamples = 24\nvalue = [12, 12]"] ;
199 -> 200 ;
201 [label="Age <= 14.75\ngini = 0.408\nsamples = 7\nvalue = [2, 5]"] ;
200 -> 201 ;
202 [label="Age <= 13.5\ngini = 0.5\nsamples = 4\nvalue = [2, 2]"] ;
201 -> 202 ;
203 [label="gini = 0.0\nsamples = 1\nvalue = [0, 1]"] ;
202 -> 203 ;
204 [label="Age <= 14.25\ngini = 0.444\nsamples = 3\nvalue = [2, 1]"] ;
202 -> 204 ;
205 [label="gini = 0.5\nsamples = 2\nvalue = [1, 1]"] ;
204 -> 205 ;
206 [label="gini = 0.0\nsamples = 1\nvalue = [1, 0]"] ;
204 -> 206 ;
207 [label="gini = 0.0\nsamples = 3\nvalue = [0, 3]"] ;
201 -> 207 ;
208 [label="Age <= 19.5\ngini = 0.484\nsamples = 17\nvalue = [10, 7]"] ;
200 -> 208 ;
209 [label="Age <= 18.5\ngini = 0.497\nsamples = 13\nvalue = [7, 6]"] ;
208 -> 209 ;
210 [label="Age <= 17.5\ngini = 0.486\nsamples = 12\nvalue = [7, 5]"] ;
209 -> 210 ;
211 [label="Age <= 16.5\ngini = 0.5\nsamples = 4\nvalue = [2, 2]"] ;
210 -> 211 ;
212 [label="gini = 0.5\nsamples = 2\nvalue = [1, 1]"] ;
211 -> 212 ;
213 [label="gini = 0.5\nsamples = 2\nvalue = [1, 1]"] ;
211 -> 213 ;
214 [label="gini = 0.469\nsamples = 8\nvalue = [5, 3]"] ;
210 -> 214 ;
215 [label="gini = 0.0\nsamples = 1\nvalue = [0, 1]"] ;
209 -> 215 ;
216 [label="Age <= 20.5\ngini = 0.375\nsamples = 4\nvalue = [3, 1]"] ;
208 -> 216 ;
217 [label="gini = 0.0\nsamples = 1\nvalue = [1, 0]"] ;
216 -> 217 ;
218 [label="gini = 0.444\nsamples = 3\nvalue = [2, 1]"] ;
216 -> 218 ;
219 [label="Age <= 27.5\ngini = 0.471\nsamples = 50\nvalue = [19, 31]"] ;
199 -> 219 ;
220 [label="Age <= 25.5\ngini = 0.36\nsamples = 17\nvalue = [4, 13]"] ;
219 -> 220 ;
221 [label="Age <= 24.5\ngini = 0.444\nsamples = 12\nvalue = [4, 8]"] ;
220 -> 221 ;
222 [label="Age <= 22.5\ngini = 0.397\nsamples = 11\nvalue = [3, 8]"] ;
221 -> 222 ;
223 [label="gini = 0.444\nsamples = 6\nvalue = [2, 4]"] ;
222 -> 223 ;
224 [label="Age <= 23.5\ngini = 0.32\nsamples = 5\nvalue = [1, 4]"] ;
222 -> 224 ;
225 [label="gini = 0.0\nsamples = 1\nvalue = [0, 1]"] ;
224 -> 225 ;
226 [label="gini = 0.375\nsamples = 4\nvalue = [1, 3]"] ;
224 -> 226 ;
227 [label="gini = 0.0\nsamples = 1\nvalue = [1, 0]"] ;
221 -> 227 ;
228 [label="gini = 0.0\nsamples = 5\nvalue = [0, 5]"] ;
220 -> 228 ;
229 [label="Age <= 29.35\ngini = 0.496\nsamples = 33\nvalue = [15, 18]"] ;
219 -> 229 ;
230 [label="gini = 0.0\nsamples = 2\nvalue = [2, 0]"] ;
229 -> 230 ;
231 [label="gini = 0.487\nsamples = 31\nvalue = [13, 18]"] ;
229 -> 231 ;
232 [label="Age <= 30.75\ngini = 0.408\nsamples = 7\nvalue = [5, 2]"] ;
198 -> 232 ;
233 [label="gini = 0.0\nsamples = 3\nvalue = [3, 0]"] ;
232 -> 233 ;
234 [label="Age <= 31.5\ngini = 0.5\nsamples = 4\nvalue = [2, 2]"] ;
232 -> 234 ;
235 [label="gini = 0.444\nsamples = 3\nvalue = [1, 2]"] ;
234 -> 235 ;
236 [label="gini = 0.0\nsamples = 1\nvalue = [1, 0]"] ;
234 -> 236 ;
237 [label="Age <= 36.5\ngini = 0.32\nsamples = 5\nvalue = [1, 4]"] ;
197 -> 237 ;
238 [label="gini = 0.0\nsamples = 3\nvalue = [0, 3]"] ;
237 -> 238 ;
239 [label="Age <= 37.5\ngini = 0.5\nsamples = 2\nvalue = [1, 1]"] ;
237 -> 239 ;
240 [label="gini = 0.0\nsamples = 1\nvalue = [1, 0]"] ;
239 -> 240 ;
241 [label="gini = 0.0\nsamples = 1\nvalue = [0, 1]"] ;
239 -> 241 ;
242 [label="Age <= 55.5\ngini = 0.18\nsamples = 10\nvalue = [9, 1]"] ;
186 -> 242 ;
243 [label="gini = 0.0\nsamples = 9\nvalue = [9, 0]"] ;
242 -> 243 ;
244 [label="gini = 0.0\nsamples = 1\nvalue = [0, 1]"] ;
242 -> 244 ;
}